svm_type c_svc
kernel_type rbf
gamma 0.0125
nr_class 2
total_sv 32
rho -0.57868
label 11 12
nr_sv 18 14
SV
0.421386923106318 1:-1.18 2:-2.35 3:-2.35 4:-2.35 5:-2.35 6:-2.35 7:-2.18 8:-2.18 9:-1.25 10:-1.25 11:-11.96 12:-11.1 13:-11.1 14:-11.1 15:-11.1 16:-11.1 17:-12.7 18:-12.7 19:-13.31 20:-13.31 21:-7.54 22:-5.82 23:-5.82 24:-5.82 25:-5.82 26:-5.82 27:0.35 28:0.35 29:2.13 30:2.13 31:-0.1 32:-0.06 33:-0.06 34:-0.06 35:-0.06 36:-0.06 37:-0.02 38:-0.02 39:-0.02 40:-0.02 41:-0.02 42:-0.02 43:-0.02 44:-0.02 45:-0.02 46:-0.02 47:-0.02 48:-0.02 49:-0.02 50:-0.02 51:8.61 52:9.1 53:8.97 54:8.97 55:8.97 56:9.1 57:8.87 58:8.87 59:8.71 60:8.71 61:0.36 62:0.04 63:0.2 64:0.2 65:0.2 66:0.04 67:-0.43 68:-0.43 69:-0.57 70:-0.57 71:-0.54 72:-0.87 73:-0.68 74:-0.68 75:-0.87 76:-0.87 77:-1.52 78:-1.52 79:-1.63 80:-1.63 
0.3624307313327316 1:1.57 2:1.57 3:1.57 4:1.57 5:1.57 6:1.57 7:2.19 8:0.62 9:0.62 10:0.62 11:-2.38 12:-2.38 13:-2.38 14:-2.38 15:-2.38 16:-2.38 17:-3.25 18:-3.9 19:-3.9 20:-3.9 21:-10 22:-10 23:-10 24:-10 25:-10 26:-10 27:-9.87 28:-9.65 29:-9.65 30:-9.65 31:-0.12 32:-0.12 33:-0.12 34:-0.12 35:-0.12 36:-0.12 37:-0.11 38:-0.09 39:-0.09 40:-0.09 41:-0.04 42:-0.04 43:-0.04 44:-0.04 45:-0.04 46:-0.04 47:-0.05 48:-0.05 49:-0.05 50:-0.05 51:1.36 52:1.36 53:1.36 54:1.81 55:1.81 56:1.81 57:2.66 58:3.73 59:3.73 60:3.73 61:-0.18 62:-0.18 63:-0.18 64:0 65:0 66:0 67:0.29 68:0.67 69:0.67 70:0.67 71:0.49 72:0.49 73:0.49 74:0.62 75:0.62 76:0.62 77:0.97 78:1.23 79:1.23 80:1.23 
0.882585114203093 1:0.3 2:0.3 3:0.3 4:0.3 5:0.3 6:0.3 7:0.3 8:0.71 9:0.71 10:0.71 11:-0.88 12:-0.88 13:-0.88 14:-0.88 15:-0.88 16:-0.88 17:-0.79 18:-1.03 19:-1.03 20:-1.03 21:0.47 22:0.47 23:0.47 24:0.47 25:0.47 26:0.47 27:0.34 28:-0.78 29:-0.78 30:-0.78 31:-0.12 32:-0.12 33:-0.12 34:-0.12 35:-0.12 36:-0.12 37:-0.12 38:-0.13 39:-0.13 40:-0.13 41:-0.02 42:-0.02 43:-0.02 44:-0.02 45:-0.02 46:-0.02 47:-0.02 48:-0.02 49:-0.02 50:-0.02 51:-0.7 52:-0.7 53:-0.7 54:-0.7 55:-0.7 56:-0.7 57:-0.7 58:-0.8 59:-0.8 60:-0.77 61:-0.08 62:-0.08 63:-0.08 64:-0.08 65:-0.08 66:-0.08 67:-0.08 68:-0.16 69:-0.08 70:-0.08 71:-0.15 72:-0.15 73:-0.15 74:-0.15 75:-0.15 76:-0.15 77:-0.15 78:-0.13 79:-0.11 80:-0.11 
0.3895485680194855 1:0.93 2:0.93 3:0.93 4:0.93 5:0.93 6:0.93 7:0.93 8:0.93 9:0.7 10:0.7 11:-1.14 12:-1.14 13:-1.14 14:-1.14 15:-1.14 16:-1.14 17:-1.14 18:-1.14 19:-1.12 20:-1.12 21:0 22:0 23:0 24:0 25:0 26:0 27:0 28:0 29:-0.07 30:-0.07 31:-0.1 32:-0.1 33:-0.1 34:-0.1 35:-0.1 36:-0.1 37:-0.1 38:-0.1 39:-0.1 40:-0.1 41:-0.05 42:-0.05 43:-0.05 44:-0.05 45:-0.05 46:-0.05 47:-0.05 48:-0.05 49:-0.06 50:-0.06 51:-0.09 52:-0.09 53:-0.09 54:-0.09 55:-0.09 56:-0.09 57:-0.09 58:-0.09 59:-0.2 60:-0.17 61:-0.01 62:-0.01 63:-0.01 64:-0.01 65:-0.01 66:-0.01 67:-0.01 68:-0.01 69:-0.12 70:-0.09 71:0.1 72:0.1 73:0.1 74:0.1 75:0.1 76:0.1 77:0.1 78:0.1 79:0.1 80:0.11 
0.4593806223111359 1:0.88 2:0.88 3:0.88 4:0.88 5:0.88 6:0.88 7:0.97 8:0.96 9:1.07 10:1.17 11:-1.16 12:-1.16 13:-1.16 14:-1.16 15:-1.16 16:-1.16 17:-1.24 18:-1.35 19:-1.39 20:-1.49 21:-2.17 22:-2.17 23:-2.17 24:-2.17 25:-2.17 26:-2.17 27:-2.69 28:-3.48 29:-3.81 30:-4.48 31:-0.1 32:-0.1 33:-0.1 34:-0.1 35:-0.1 36:-0.1 37:-0.1 38:-0.1 39:-0.1 40:-0.1 41:-0.04 42:-0.04 43:-0.04 44:-0.04 45:-0.04 46:-0.04 47:-0.04 48:-0.04 49:-0.04 50:-0.04 51:-0.29 52:-0.29 53:-0.29 54:-0.23 55:-0.23 56:-0.23 57:-0.23 58:0.06 59:0.17 60:0.17 61:-0.08 62:-0.08 63:-0.08 64:-0.11 65:-0.11 66:-0.11 67:-0.11 68:-0.23 69:-0.29 70:-0.29 71:-0.21 72:-0.21 73:-0.21 74:-0.19 75:-0.19 76:-0.19 77:-0.19 78:-0.18 79:-0.18 80:-0.18 
0.3571198497719089 1:0.37 2:0.37 3:0.37 4:0.37 5:0.4 6:0.7 7:0.7 8:0.82 9:0.82 10:0.82 11:-1.09 12:-1.09 13:-1.09 14:-1.09 15:-1.16 16:-1.04 17:-1.04 18:-1.09 19:-1.09 20:-1.09 21:0.62 22:0.62 23:0.62 24:0.62 25:0.32 26:-0.74 27:-0.74 28:-0.99 29:-0.99 30:-0.99 31:-0.1 32:-0.1 33:-0.1 34:-0.1 35:-0.1 36:-0.1 37:-0.1 38:-0.1 39:-0.1 40:-0.1 41:-0.06 42:-0.06 43:-0.06 44:-0.06 45:-0.06 46:-0.06 47:-0.06 48:-0.06 49:-0.06 50:-0.06 51:-0.43 52:-0.43 53:-0.43 54:-0.43 55:-0.43 56:-0.21 57:-0.21 58:-0.13 59:-0.13 60:-0.13 61:-0.17 62:-0.17 63:-0.17 64:-0.17 65:-0.17 66:0.02 67:0.02 68:0.07 69:0.07 70:0.07 71:-0.1 72:-0.1 73:-0.1 74:-0.1 75:-0.1 76:-0.1 77:-0.1 78:-0.07 79:-0.07 80:-0.07 
1 1:0.5 2:0.5 3:0.5 4:0.5 5:0.5 6:0.52 7:0.52 8:0.52 9:0.52 10:0.76 11:-1.53 12:-1.53 13:-1.53 14:-1.53 15:-1.53 16:-1.52 17:-1.52 18:-1.52 19:-1.52 20:-1.67 21:-1.57 22:-1.57 23:-1.57 24:-1.57 25:-1.57 26:-1.3 27:-1.3 28:-1.3 29:-1.3 30:-1.92 31:-0.1 32:-0.1 33:-0.1 34:-0.1 35:-0.1 36:-0.1 37:-0.1 38:-0.1 39:-0.1 40:-0.1 41:-0.04 42:-0.04 43:-0.04 44:-0.04 45:-0.04 46:-0.04 47:-0.04 48:-0.04 49:-0.04 50:-0.04 51:0.09 52:0.09 53:0.09 54:0.09 55:0.09 56:0.09 57:0.09 58:0.09 59:0.06 60:0.06 61:-0.09 62:-0.09 63:-0.09 64:-0.09 65:-0.09 66:-0.09 67:-0.09 68:-0.09 69:-0.17 70:-0.22 71:0.01 72:0.01 73:0.01 74:0.01 75:0.01 76:0.01 77:0.01 78:0.01 79:-0.01 80:-0.02 
0.4656093587565907 1:-0.46 2:-0.46 3:-0.46 4:-0.46 5:-0.26 6:-0.26 7:-0.26 8:-0.26 9:-0.46 10:-0.31 11:-4.76 12:-4.76 13:-4.76 14:-4.76 15:-4.07 16:-4.07 17:-4.07 18:-4.07 19:-4.37 20:-4.17 21:0.77 22:0.77 23:0.77 24:0.77 25:0.86 26:0.86 27:0.86 28:0.86 29:0.83 30:0.73 31:-0.03 32:-0.03 33:-0.03 34:-0.03 35:-0.03 36:-0.01 37:-0.01 38:-0.01 39:-0.01 40:0.01 41:-0.07 42:-0.07 43:-0.07 44:-0.07 45:-0.07 46:-0.07 47:-0.07 48:-0.07 49:-0.07 50:-0.08 51:4.02 52:4.02 53:3.9 54:3.9 55:3.9 56:3.9 57:3.9 58:3.77 59:3.71 60:3.64 61:-0.66 62:-0.66 63:-0.66 64:-0.66 65:-0.66 66:-0.66 67:-0.66 68:-0.71 69:-0.7 70:-0.55 71:-0.16 72:-0.16 73:-0.2 74:-0.2 75:-0.2 76:-0.2 77:-0.2 78:-0.21 79:-0.3 80:-0.33 
1 1:0.65 2:0.65 3:0.65 4:0.72 5:0.72 6:0.72 7:0.72 8:0.25 9:0.25 10:0.25 11:-1.23 12:-1.23 13:-1.3 14:-1.3 15:-1.3 16:-1.3 17:-1.3 18:-1.45 19:-1.45 20:-1.45 21:-2.51 22:-2.51 23:-2.52 24:-2.52 25:-2.52 26:-2.52 27:-2.52 28:-2.33 29:-2.33 30:-2.33 31:-0.14 32:-0.14 33:-0.14 34:-0.14 35:-0.14 36:-0.14 37:-0.14 38:-0.14 39:-0.14 40:-0.14 41:-0.03 42:-0.03 43:-0.03 44:-0.03 45:-0.03 46:-0.03 47:-0.03 48:-0.03 49:-0.03 50:-0.03 51:0.1 52:0.1 53:0.1 54:0.1 55:0.1 56:0.2 57:0.2 58:0.32 59:0.32 60:0.32 61:-0.06 62:-0.06 63:-0.06 64:-0.06 65:-0.06 66:-0.02 67:-0.02 68:-0.11 69:-0.11 70:-0.11 71:0.17 72:0.17 73:0.17 74:0.17 75:0.21 76:0.21 77:0.21 78:0.21 79:0.21 80:0.21 
1 1:0.56 2:0.56 3:0.56 4:0.66 5:0.66 6:0.66 7:0.66 8:0.66 9:0.66 10:0.74 11:-0.87 12:-0.87 13:-0.87 14:-1.03 15:-1.03 16:-1.03 17:-1.03 18:-1.03 19:-1.03 20:-0.83 21:0.31 22:0.31 23:-0.04 24:-0.04 25:-0.04 26:-0.04 27:-0.04 28:-0.04 29:-0.04 30:0.01 31:-0.12 32:-0.12 33:-0.12 34:-0.12 35:-0.12 36:-0.12 37:-0.12 38:-0.12 39:-0.12 40:-0.12 41:-0.05 42:-0.05 43:-0.05 44:-0.05 45:-0.05 46:-0.05 47:-0.05 48:-0.05 49:-0.05 50:-0.05 51:-0.34 52:-0.34 53:-0.34 54:-0.34 55:-0.34 56:-0.34 57:-0.31 58:-0.31 59:-0.31 60:-0.31 61:-0.14 62:-0.14 63:-0.14 64:-0.14 65:-0.14 66:-0.14 67:-0.12 68:-0.12 69:-0.12 70:-0.12 71:-0.04 72:-0.04 73:-0.04 74:-0.04 75:-0.04 76:-0.04 77:-0.04 78:-0.04 79:-0.04 80:-0.04 
1 1:0.45 2:0.45 3:0.45 4:0.45 5:0.45 6:0.45 7:0.45 8:0.45 9:0.55 10:0.55 11:-1.03 12:-1.03 13:-1.03 14:-1.03 15:-1.03 16:-1.03 17:-1.03 18:-1.03 19:-0.86 20:-0.86 21:0.33 22:0.33 23:0.33 24:0.33 25:0.33 26:0.33 27:0.33 28:0.33 29:-0.01 30:-0.01 31:-0.13 32:-0.13 33:-0.13 34:-0.13 35:-0.13 36:-0.13 37:-0.13 38:-0.13 39:-0.13 40:-0.13 41:-0.03 42:-0.03 43:-0.03 44:-0.03 45:-0.03 46:-0.03 47:-0.03 48:-0.03 49:-0.03 50:-0.03 51:-0.39 52:-0.39 53:-0.39 54:-0.39 55:-0.39 56:-0.38 57:-0.38 58:-0.38 59:-0.34 60:-0.36 61:-0.02 62:-0.02 63:-0.02 64:-0.02 65:-0.04 66:-0.04 67:-0.04 68:-0.04 69:-0.04 70:-0.04 71:0.15 72:0.15 73:0.14 74:0.15 75:0.14 76:0.14 77:0.14 78:0.14 79:0.18 80:0.18 
0.7823926791296041 1:0.81 2:0.36 3:0.36 4:0.43 5:0.43 6:0.76 7:0.99 8:1.17 9:1.42 10:1.28 11:-1.29 12:-1.32 13:-1.32 14:-1.43 15:-1.43 16:-1.36 17:-1.43 18:-1.51 19:-1.49 20:-2.72 21:-1.93 22:-4 23:-4 24:-4.51 25:-4.51 26:-6.05 27:-7.06 28:-7.8 29:-8.47 30:-6.15 31:-0.14 32:-0.14 33:-0.14 34:-0.14 35:-0.14 36:-0.14 37:-0.14 38:-0.14 39:-0.13 40:-0.12 41:-0.05 42:-0.05 43:-0.05 44:-0.05 45:-0.05 46:-0.05 47:-0.05 48:-0.05 49:-0.05 50:-0.05 51:-0.44 52:0.03 53:0.03 54:0.03 55:0.18 56:0.68 57:0.98 58:1.33 59:1.33 60:2.48 61:-0.1 62:-0.13 63:-0.13 64:-0.13 65:-0.17 66:-0.23 67:-0.2 68:-0.11 69:-0.11 70:0.07 71:0.14 72:0.06 73:0.06 74:0.06 75:0.05 76:0.04 77:0.06 78:0.1 79:0.1 80:0.33 
1 1:0.61 2:0.61 3:0.61 4:0.61 5:0.61 6:0.61 7:0.61 8:0.56 9:0.71 10:0.67 11:-0.94 12:-0.94 13:-0.94 14:-0.94 15:-0.94 16:-0.94 17:-0.94 18:-0.86 19:-0.92 20:-0.9 21:0.37 22:0.37 23:0.37 24:0.37 25:0.37 26:0.37 27:0.37 28:0.14 29:-0.89 30:-1.57 31:-0.13 32:-0.13 33:-0.13 34:-0.13 35:-0.13 36:-0.13 37:-0.13 38:-0.13 39:-0.13 40:-0.13 41:-0.05 42:-0.05 43:-0.05 44:-0.05 45:-0.05 46:-0.05 47:-0.05 48:-0.05 49:-0.05 50:-0.05 51:-0.18 52:-0.24 53:-0.24 54:-0.24 55:-0.24 56:-0.24 57:-0.24 58:-0.24 59:-0.29 60:-0.29 61:-0.08 62:-0.14 63:-0.14 64:-0.14 65:-0.14 66:-0.14 67:-0.14 68:-0.14 69:-0.19 70:-0.19 71:0.07 72:0.07 73:0.07 74:0.07 75:0.07 76:0.07 77:0.07 78:0.07 79:0.06 80:0.06 
1 1:0.51 2:0.51 3:0.51 4:0.51 5:0.6 6:0.6 7:0.58 8:0.58 9:0.58 10:0.58 11:-0.75 12:-0.75 13:-0.75 14:-0.75 15:-0.78 16:-0.78 17:-0.72 18:-0.72 19:-0.72 20:-0.72 21:-1.04 22:-1.04 23:-1.04 24:-1.04 25:-1.13 26:-1.13 27:-0.96 28:-0.96 29:-0.96 30:-0.96 31:-0.11 32:-0.11 33:-0.11 34:-0.11 35:-0.11 36:-0.11 37:-0.11 38:-0.11 39:-0.11 40:-0.11 41:-0.04 42:-0.04 43:-0.04 44:-0.04 45:-0.04 46:-0.04 47:-0.04 48:-0.04 49:-0.04 50:-0.04 51:-0.15 52:-0.05 53:-0.05 54:-0.05 55:-0.05 56:-0.05 57:0.03 58:0.03 59:0.03 60:0.03 61:-0.01 62:0.07 63:0.07 64:0.07 65:0.07 66:0.07 67:0.13 68:0.13 69:0.13 70:0.13 71:0.1 72:0.12 73:0.12 74:0.12 75:0.12 76:0.12 77:0.14 78:0.14 79:0.14 80:0.14 
1 1:0.58 2:0.67 3:0.67 4:0.67 5:0.67 6:0.79 7:0.66 8:0.68 9:0.68 10:0.68 11:-0.85 12:-0.93 13:-0.93 14:-0.93 15:-0.93 16:-0.86 17:-1.15 18:-1.14 19:-1.14 20:-1.14 21:1.19 22:-2.02 23:-2.02 24:-2.02 25:-2.02 26:-1.91 27:-1.41 28:-1.81 29:-1.81 30:-1.81 31:-0.14 32:-0.14 33:-0.14 34:-0.14 35:-0.14 36:-0.14 37:-0.14 38:-0.14 39:-0.14 40:-0.14 41:-0.04 42:-0.04 43:-0.04 44:-0.04 45:-0.04 46:-0.04 47:-0.04 48:-0.04 49:-0.04 50:-0.04 51:-0.43 52:-0.1 53:-0.1 54:-0.1 55:-0.1 56:-0.1 57:0.01 58:0.01 59:0.01 60:0 61:-0.18 62:-0.02 63:-0.02 64:-0.02 65:-0.02 66:-0.02 67:-0.25 68:-0.25 69:-0.25 70:-0.31 71:0.06 72:0.09 73:0.09 74:0.09 75:0.09 76:0.09 77:0.1 78:0.09 79:0.09 80:0.09 
1 1:0.62 2:0.62 3:0.62 4:0.98 5:1.04 6:1.04 7:1.04 8:0.52 9:0.37 10:0.37 11:-0.78 12:-0.78 13:-0.78 14:-0.79 15:-0.94 16:-0.94 17:-0.94 18:-0.78 19:-0.77 20:-0.77 21:-0.07 22:-0.07 23:-0.07 24:0.86 25:0.4 26:0.4 27:0.4 28:-0.85 29:-0.92 30:-0.92 31:-0.13 32:-0.13 33:-0.13 34:-0.13 35:-0.13 36:-0.13 37:-0.13 38:-0.13 39:-0.13 40:-0.13 41:-0.03 42:-0.03 43:-0.03 44:-0.03 45:-0.03 46:-0.03 47:-0.03 48:-0.03 49:-0.03 50:-0.03 51:0 52:0 53:0 54:-0.18 55:-0.18 56:-0.21 57:-0.21 58:-0.06 59:0 60:0 61:0.01 62:0.01 63:0.01 64:-0.11 65:-0.11 66:-0.07 67:-0.07 68:0.01 69:-0.03 70:-0.03 71:0.07 72:0.07 73:0.07 74:0.1 75:0.1 76:0.12 77:0.12 78:0.14 79:0.11 80:0.11 
0.7788412926010131 1:0.51 2:0.59 3:0.59 4:0.59 5:0.62 6:0.44 7:0.44 8:-0.75 9:-0.75 10:-0.75 11:-1.41 12:-1.53 13:-1.53 14:-1.53 15:-2.36 16:-2.9 17:-2.9 18:-3.65 19:-3.65 20:-3.65 21:-5.04 22:-5.02 23:-5.02 24:-5.02 25:-6.94 26:-6.94 27:-6.94 28:-5.08 29:-5.08 30:-5.08 31:-0.12 32:-0.12 33:-0.12 34:-0.12 35:-0.11 36:-0.11 37:-0.11 38:-0.08 39:-0.08 40:-0.08 41:-0.05 42:-0.05 43:-0.05 44:-0.05 45:-0.05 46:-0.05 47:-0.05 48:-0.06 49:-0.06 50:-0.06 51:1.01 52:1.01 53:1.01 54:1.17 55:2.18 56:2.51 57:2.51 58:3.62 59:3.62 60:3.62 61:-0.34 62:-0.34 63:-0.34 64:-0.39 65:-0.22 66:-0.17 67:-0.17 68:-0.15 69:-0.15 70:-0.15 71:-0.01 72:-0.01 73:-0.01 74:0 75:0.15 76:0.19 77:0.19 78:0.04 79:0.04 80:0.04 
0.1623191949623754 1:1.01 2:1.01 3:1.01 4:1.01 5:1.01 6:1.01 7:1.01 8:1.02 9:0.73 10:0.73 11:-2.72 12:-2.72 13:-2.72 14:-2.72 15:-2.72 16:-2.72 17:-2.72 18:-3.11 19:-3.72 20:-3.72 21:-5.9 22:-5.9 23:-5.9 24:-5.9 25:-5.9 26:-5.9 27:-5.9 28:-6.1 29:-7.47 30:-7.47 31:-0.11 32:-0.11 33:-0.11 34:-0.11 35:-0.11 36:-0.11 37:-0.11 38:-0.11 39:-0.08 40:-0.08 41:-0.05 42:-0.05 43:-0.05 44:-0.05 45:-0.05 46:-0.05 47:-0.05 48:-0.05 49:-0.06 50:-0.06 51:2 52:2 53:2 54:2 55:2 56:2 57:2 58:2 59:3.06 60:3.4 61:-0.74 62:-0.74 63:-0.74 64:-0.74 65:-0.74 66:-0.74 67:-0.74 68:-0.74 69:-0.52 70:-0.43 71:0.01 72:0.01 73:0.01 74:0.01 75:0.01 76:0.01 77:0.01 78:0.01 79:0.29 80:0.34 
-1 1:-0.01 2:-0.01 3:-0.01 4:-0.01 5:-0.01 6:-0.01 7:-0.01 8:-0.01 9:0.71 10:0.71 11:-0.63 12:-0.63 13:-0.63 14:-0.63 15:-0.63 16:-0.63 17:-0.63 18:-0.63 19:-0.65 20:-0.65 21:-0.59 22:-0.59 23:-0.59 24:-0.59 25:-0.59 26:-0.59 27:-0.59 28:-0.59 29:-0.11 30:-0.11 31:-0.07 32:-0.07 33:-0.07 34:-0.07 35:-0.07 36:-0.07 37:-0.07 38:-0.07 39:-0.07 40:-0.07 41:-0.02 42:-0.02 43:-0.02 44:-0.02 45:-0.02 46:-0.02 47:-0.02 48:-0.02 49:-0.02 50:-0.02 51:-0.05 52:-0.05 53:-0.05 54:-0.05 55:-0.02 56:-0.02 57:-0.02 58:-0.02 59:-0.04 60:-0.08 61:0.03 62:0.03 63:0.03 64:0.03 65:0.02 66:0.02 67:0.02 68:0.02 69:0.02 70:0.02 71:0.03 72:0.03 73:0.03 74:0.03 75:-0.01 76:-0.01 77:-0.01 78:-0.01 79:-0.02 80:0 
-1 1:0.49 2:0.49 3:0.49 4:0.49 5:0.61 6:0.61 7:0.52 8:0.36 9:0.36 10:0.36 11:-0.6 12:-0.6 13:-0.6 14:-0.63 15:-0.63 16:-0.8 17:-0.84 18:-0.84 19:-0.84 20:-0.84 21:-0.8 22:-0.8 23:-0.8 24:-0.69 25:-0.69 26:-0.27 27:-0.05 28:-0.05 29:-0.05 30:-0.05 31:-0.03 32:-0.03 33:-0.03 34:-0.03 35:-0.03 36:-0.03 37:-0.03 38:-0.03 39:-0.03 40:-0.03 41:-0.03 42:-0.03 43:-0.03 44:-0.03 45:-0.03 46:-0.03 47:-0.03 48:-0.03 49:-0.03 50:-0.03 51:0.19 52:0.19 53:0.19 54:0.21 55:0.22 56:0.18 57:0.14 58:0.14 59:0.14 60:0.14 61:-0.02 62:-0.02 63:-0.02 64:0 65:0.03 66:0.09 67:0.09 68:0.09 69:0.09 70:0.09 71:0.12 72:0.12 73:0.12 74:0.14 75:0.16 76:0.21 77:0.21 78:0.21 79:0.21 80:0.21 
-1 1:-0.18 2:-0.18 3:-0.22 4:-0.18 5:-0.18 6:-0.22 7:-0.22 8:-0.22 9:-0.23 10:-0.06 11:-0.61 12:-0.61 13:-0.54 14:-0.61 15:-0.61 16:-0.54 17:-0.54 18:-0.54 19:-0.57 20:-0.6 21:-0.73 22:-0.73 23:-0.4 24:-0.73 25:-0.73 26:-0.4 27:-0.4 28:-0.4 29:-0.65 30:-0.77 31:-0.04 32:-0.04 33:-0.04 34:-0.04 35:-0.04 36:-0.04 37:-0.04 38:-0.04 39:-0.04 40:-0.04 41:-0.04 42:-0.04 43:-0.04 44:-0.04 45:-0.04 46:-0.04 47:-0.04 48:-0.04 49:-0.03 50:-0.03 51:0.15 52:0.13 53:0.09 54:0.13 55:0.13 56:0.13 57:0.13 58:0.09 59:0 60:0.01 61:0.12 62:0.1 63:0.08 64:0.1 65:0.1 66:0.1 67:0.1 68:0.08 69:-0.01 70:0 71:0.19 72:0.19 73:0.16 74:0.19 75:0.19 76:0.19 77:0.19 78:0.16 79:0.06 80:0.04 
-1 1:0.77 2:0.77 3:0.77 4:0.77 5:0.77 6:0.77 7:0.63 8:0.3 9:0.3 10:0.3 11:-0.83 12:-0.83 13:-0.69 14:-0.69 15:-0.69 16:-0.69 17:-0.65 18:-0.74 19:-0.74 20:-0.74 21:-0.63 22:-0.63 23:-0.39 24:-0.39 25:-0.39 26:-0.39 27:-0.38 28:-0.67 29:-0.67 30:-0.67 31:-0.04 32:-0.04 33:-0.04 34:-0.04 35:-0.04 36:-0.04 37:-0.04 38:-0.04 39:-0.04 40:-0.04 41:-0.02 42:-0.02 43:-0.02 44:-0.02 45:-0.02 46:-0.02 47:-0.02 48:-0.02 49:-0.02 50:-0.02 51:-0.04 52:-0.04 53:-0.04 54:-0.04 55:-0.04 56:-0.04 57:-0.07 58:-0.06 59:-0.06 60:-0.06 61:0 62:0 63:0 64:0 65:0 66:0 67:0 68:-0.08 69:-0.08 70:-0.08 71:0.13 72:0.16 73:0.16 74:0.16 75:0.16 76:0.18 77:0.18 78:0.14 79:0.14 80:0.14 
-1 1:-0.2 2:-0.2 3:-0.2 4:-0.2 5:-0.2 6:-0.2 7:-0.2 8:-0.2 9:-0.2 10:-0.58 11:-0.91 12:-0.91 13:-0.91 14:-0.91 15:-0.91 16:-0.91 17:-0.91 18:-0.91 19:-0.91 20:-0.57 21:-0.63 22:-0.63 23:-0.63 24:-0.63 25:-0.63 26:-0.63 27:-0.63 28:-0.63 29:-0.63 30:-0.67 31:-0.04 32:-0.04 33:-0.04 34:-0.04 35:-0.04 36:-0.04 37:-0.04 38:-0.04 39:-0.04 40:-0.04 41:-0.02 42:-0.02 43:-0.02 44:-0.02 45:-0.02 46:-0.02 47:-0.02 48:-0.02 49:-0.02 50:-0.02 51:0.03 52:0.03 53:0.03 54:0.03 55:0.03 56:0.03 57:0.03 58:0.03 59:0.03 60:0.01 61:0.1 62:0.1 63:0.1 64:0.1 65:0.1 66:0.1 67:0.1 68:0.1 69:0.1 70:0.04 71:0.29 72:0.29 73:0.29 74:0.29 75:0.29 76:0.29 77:0.29 78:0.29 79:0.29 80:0.18 
-1 1:0.68 2:0.66 3:0.68 4:0.66 5:0.68 6:0.68 7:0.68 8:0.68 9:0.68 10:0.67 11:-0.7 12:-0.71 13:-0.7 14:-0.71 15:-0.7 16:-0.7 17:-0.7 18:-0.7 19:-0.7 20:-0.65 21:-1.1 22:-0.82 23:-1.1 24:-0.82 25:-1.1 26:-1.1 27:-1.1 28:-1.1 29:-1.1 30:-1.25 31:-0.03 32:-0.03 33:-0.03 34:-0.03 35:-0.03 36:-0.03 37:-0.03 38:-0.03 39:-0.03 40:-0.03 41:0 42:0 43:0 44:0 45:0 46:0 47:0 48:0 49:0 50:0 51:0.12 52:0.12 53:0.12 54:0.12 55:0.12 56:0.17 57:0.17 58:0.17 59:0.17 60:0.17 61:0.05 62:0.05 63:0.05 64:0.05 65:0.05 66:0.04 67:0.04 68:0.04 69:0.04 70:0.04 71:0.11 72:0.11 73:0.11 74:0.11 75:0.11 76:0.14 77:0.14 78:0.14 79:0.14 80:0.14 
-1 1:-0.05 2:0.14 3:0.16 4:0.32 5:0.32 6:0.32 7:0.32 8:0.38 9:0.38 10:0.38 11:-0.8 12:-0.81 13:-0.87 14:-0.86 15:-0.86 16:-0.86 17:-0.86 18:-0.82 19:-0.82 20:-0.82 21:-0.73 22:-0.65 23:-0.66 24:-0.57 25:-0.57 26:-0.57 27:-0.57 28:-0.73 29:-0.73 30:-0.73 31:-0.03 32:-0.03 33:-0.03 34:-0.03 35:-0.03 36:-0.03 37:-0.03 38:-0.03 39:-0.03 40:-0.03 41:0 42:0 43:0 44:-0.01 45:-0.01 46:-0.01 47:-0.01 48:-0.01 49:-0.01 50:-0.01 51:-0.02 52:-0.01 53:-0.01 54:0.01 55:0.01 56:0.01 57:0.01 58:0.01 59:0.01 60:0.01 61:0.04 62:-0.01 63:-0.01 64:-0.04 65:-0.04 66:-0.04 67:-0.04 68:-0.04 69:-0.04 70:-0.04 71:0.04 72:0.03 73:0.03 74:0.04 75:0.04 76:0.04 77:0.04 78:0.04 79:0.04 80:0.04 
-0.7731335852977501 1:-0.76 2:-0.76 3:-0.76 4:-0.76 5:-0.76 6:-0.76 7:-0.76 8:-0.76 9:-0.29 10:-0.29 11:-0.82 12:-0.82 13:-0.82 14:-0.82 15:-0.82 16:-0.82 17:-0.82 18:-0.82 19:-0.83 20:-0.83 21:-0.38 22:-0.38 23:-0.38 24:-0.38 25:-0.38 26:-0.38 27:-0.38 28:-0.38 29:-0.33 30:-0.33 31:-0.03 32:-0.03 33:-0.03 34:-0.03 35:-0.03 36:-0.03 37:-0.03 38:-0.03 39:-0.03 40:-0.03 41:-0.01 42:-0.01 43:-0.01 44:-0.01 45:-0.01 46:-0.01 47:-0.01 48:-0.01 49:-0.01 50:-0.01 51:0 52:0 53:-0.02 54:-0.02 55:-0.02 56:-0.02 57:-0.02 58:-0.02 59:-0.03 60:-0.03 61:0.01 62:0.01 63:0.01 64:0.01 65:0.01 66:0.01 67:0.01 68:0.01 69:-0.05 70:-0.05 71:0.11 72:0.1 73:0.1 74:0.1 75:0.1 76:0.1 77:0.1 78:0.1 79:0.1 80:0.1 
-1 1:-0.25 2:-0.25 3:-0.38 4:-0.38 5:-0.38 6:-0.38 7:-0.21 8:-0.05 9:0.07 10:0.07 11:-0.52 12:-0.52 13:-0.47 14:-0.47 15:-0.47 16:-0.47 17:-0.36 18:-0.3 19:-0.24 20:-0.24 21:-0.43 22:-0.43 23:-0.83 24:-0.83 25:-0.83 26:-0.83 27:-0.78 28:-1.02 29:-1.13 30:-1.13 31:-0.02 32:-0.02 33:-0.02 34:-0.02 35:-0.02 36:-0.02 37:-0.02 38:-0.02 39:-0.02 40:-0.02 41:0.02 42:0.02 43:0.02 44:0.02 45:0.02 46:0.02 47:0.02 48:0.02 49:0.02 50:0.02 51:0.03 52:0.03 53:0.03 54:0.06 55:0.06 56:0.06 57:0.09 58:0.09 59:0.14 60:0.19 61:0.08 62:0.08 63:0.05 64:0.04 65:0.04 66:0.04 67:0.03 68:0.03 69:0.04 70:0.08 71:0.1 72:0.1 73:0.12 74:0.11 75:0.11 76:0.11 77:0.12 78:0.12 79:0.16 80:0.2 
-0.2884807488965061 1:-0.7 2:-0.81 3:-0.81 4:-0.81 5:-0.73 6:-0.73 7:-0.73 8:-1.13 9:-1.18 10:-1.08 11:0.01 12:-0.52 13:-0.52 14:-0.52 15:-0.57 16:-0.57 17:-0.57 18:-0.91 19:-0.86 20:-0.5 21:-0.52 22:0.27 23:0.27 24:0.27 25:0.27 26:0.27 27:0.27 28:-0.82 29:-1.13 30:-1.26 31:-0.02 32:-0.02 33:-0.02 34:-0.02 35:-0.02 36:-0.02 37:-0.02 38:-0.02 39:-0.02 40:-0.02 41:0.02 42:0.02 43:0.02 44:0.02 45:0.02 46:0.02 47:0.02 48:0.02 49:0.02 50:0.02 51:0.22 52:0.12 53:0.05 54:0.05 55:0.05 56:0.05 57:0 58:0 59:0.09 60:0.13 61:0.03 62:0.02 63:-0.02 64:-0.02 65:-0.02 66:-0.01 67:-0.01 68:0.07 69:-0.09 70:-0.15 71:0.25 72:0.24 73:0.26 74:0.26 75:0.26 76:0.28 77:0.28 78:0.31 79:0.27 80:0.24 
-1 1:-0.27 2:-0.27 3:-0.45 4:-0.45 5:-0.45 6:-0.45 7:-0.45 8:-0.65 9:-0.65 10:-0.77 11:-0.05 12:-0.16 13:-0.25 14:-0.25 15:-0.25 16:-0.25 17:-0.25 18:-0.35 19:-0.35 20:-0.49 21:-0.92 22:-0.84 23:-3.38 24:-3.38 25:-3.38 26:-3.38 27:-3.38 28:-3.55 29:-3.55 30:-3.49 31:-0.1 32:-0.1 33:-0.1 34:-0.1 35:-0.1 36:-0.1 37:-0.1 38:-0.1 39:-0.1 40:-0.1 41:0.02 42:0.02 43:0.01 44:0.01 45:0.01 46:0.01 47:0.01 48:0.01 49:0.01 50:0.01 51:-0.4 52:-0.4 53:-0.39 54:-0.39 55:-0.27 56:-0.27 57:-0.27 58:0.22 59:0.22 60:0.22 61:-0.11 62:-0.11 63:-0.23 64:-0.23 65:-0.22 66:-0.22 67:-0.22 68:-0.33 69:-0.33 70:-0.33 71:0.15 72:0.15 73:0.12 74:0.12 75:0.11 76:0.11 77:0.11 78:0.05 79:0.05 80:0.05 
-1 1:-0.14 2:-0.14 3:-0.14 4:-0.14 5:-0.02 6:-0.02 7:-0.02 8:-0.02 9:-0.02 10:0.16 11:-0.26 12:-0.26 13:-0.26 14:-0.27 15:-0.27 16:-0.27 17:-0.27 18:-0.27 19:-0.27 20:-0.73 21:-4.6 22:-4.6 23:-5.04 24:-5.04 25:-5.04 26:-5.04 27:-5.04 28:-5.04 29:-5.04 30:-8.55 31:-0.09 32:-0.09 33:-0.09 34:-0.09 35:-0.09 36:-0.09 37:-0.09 38:-0.09 39:-0.09 40:-0.08 41:0.01 42:0.01 43:0.01 44:0.01 45:0.01 46:0 47:0 48:0 49:0 50:0 51:0.17 52:0.17 53:0.17 54:0.17 55:0.17 56:0.17 57:0.17 58:0.17 59:0.23 60:1.12 61:-0.42 62:-0.42 63:-0.42 64:-0.42 65:-0.42 66:-0.42 67:-0.42 68:-0.42 69:-0.52 70:-0.71 71:0.06 72:0.06 73:0.06 74:0.06 75:0.06 76:0.06 77:0.06 78:0.05 79:0.05 80:0.08 
-1 1:-0.83 2:-0.83 3:-0.83 4:-0.83 5:-0.83 6:-0.83 7:-1 8:-1.43 9:-1.35 10:-1.35 11:-2.9 12:-2.9 13:-2.9 14:-2.9 15:-2.9 16:-2.9 17:-2.84 18:-3.64 19:-2.94 20:-2.94 21:-4.63 22:-4.63 23:-4.63 24:-4.63 25:-4.63 26:-4.63 27:-3.43 28:-2.58 29:-2 30:-2 31:-0.02 32:-0.02 33:-0.02 34:-0.02 35:-0.02 36:-0.02 37:-0.01 38:-0.01 39:-0.01 40:-0.01 41:-0.04 42:-0.04 43:-0.04 44:-0.04 45:-0.04 46:-0.04 47:-0.04 48:-0.04 49:-0.04 50:-0.04 51:3.2 52:3.3 53:3.3 54:3.3 55:3.3 56:3.3 57:3.38 58:3.56 59:3.56 60:3.56 61:-0.7 62:-0.72 63:-0.72 64:-0.72 65:-0.72 66:-0.72 67:-0.75 68:-0.77 69:-0.77 70:-0.77 71:0.33 72:0.31 73:0.31 74:0.31 75:0.31 76:0.31 77:0.27 78:0.21 79:0.21 80:0.21 
-1 1:-0.23 2:-0.12 3:-0.12 4:-0.12 5:-0.12 6:-0.21 7:-0.21 8:-0.21 9:-0.21 10:-0.21 11:-0.08 12:-0.08 13:-0.08 14:-0.08 15:-0.08 16:-0.8 17:-0.8 18:-0.8 19:-0.8 20:-0.8 21:-6.08 22:-6.08 23:-6.08 24:-6.08 25:-6.08 26:-5.07 27:-5.07 28:-5.07 29:-5.07 30:-5.07 31:-0.07 32:-0.07 33:-0.07 34:-0.07 35:-0.07 36:-0.07 37:-0.07 38:-0.07 39:-0.07 40:-0.07 41:-0.01 42:-0.01 43:-0.01 44:-0.01 45:-0.01 46:-0.01 47:-0.01 48:-0.01 49:-0.01 50:-0.01 51:0.46 52:0.65 53:0.65 54:0.65 55:0.65 56:0.93 57:0.97 58:0.97 59:0.97 60:0.97 61:-0.08 62:-0.04 63:-0.04 64:-0.04 65:-0.04 66:-0.21 67:-0.31 68:-0.31 69:-0.31 70:-0.31 71:0.05 72:0.09 73:0.09 74:0.09 75:0.09 76:0.12 77:0.11 78:0.11 79:0.11 80:0.11 
